Language model created by QuickLM on Thu Jan  1 14:54:22 EST 2015
Copyright (c) 1996-2010 Carnegie Mellon University and Alexander I. Rudnicky

The model is in standard ARPA format, designed by Doug Paul while he was at MITRE.

The code that was used to produce this language model is available in Open Source.
Please visit http://www.speech.cs.cmu.edu/tools/ for more information

The (fixed) discount mass is 0.5. The backoffs are computed using the ratio method.
This model based on a corpus of 58 sentences and 64 words

\data\
ngram 1=64
ngram 2=121
ngram 3=67

\1-grams:
-2.5658 & -0.2265
-2.5658 . -0.2265
-0.8024 </s> -0.3010
-0.8024 <s> -0.2237
-2.5658 A -0.2265
-2.5658 ABRE -0.2987
-2.5658 ASTERISCO -0.2265
-2.5658 B -0.2265
-2.5658 C -0.2265
-2.5658 CERO -0.2265
-2.5658 CIERRA -0.2987
-2.5658 CINCO -0.2265
-2.2648 COMA -0.2265
-2.5658 COMILLAS -0.2265
-2.5658 CUATRO -0.2265
-2.5658 D -0.2265
-2.2648 DE -0.2987
-2.5658 DOS -0.2265
-2.5658 E -0.2265
-2.5658 EXCLAMACIóN -0.2265
-2.5658 F -0.2265
-2.5658 G -0.2265
-2.5658 GUION -0.2265
-2.5658 H -0.2265
-2.5658 I -0.2265
-2.5658 INTERROGACIóN -0.2265
-2.5658 J -0.2265
-2.5658 K -0.2265
-2.5658 L -0.2265
-2.5658 M -0.2265
-2.5658 MAYUS -0.2265
-2.5658 N -0.2265
-2.5658 NUEVE -0.2265
-2.5658 NUMERO -0.2265
-2.5658 NúMERICO -0.2265
-2.5658 NúMERO -0.2265
-2.5658 O -0.2265
-2.5658 OCHO -0.2265
-2.5658 P -0.2265
-2.2648 PARENTESIS -0.2265
-2.2648 PREFIJO -0.2987
-2.5658 PUNTO -0.2987
-2.5658 Q -0.2265
-2.5658 R -0.2265
-2.5658 S -0.2265
-2.5658 SEIS -0.2265
-2.5658 SIETE -0.2265
-2.2648 SIGNO -0.2987
-2.5658 T -0.2265
-2.5658 TRES -0.2265
-2.5658 U -0.2265
-2.5658 UNO -0.2265
-2.5658 V -0.2265
-2.5658 W -0.2265
-2.5658 X -0.2265
-2.2648 Y -0.2237
-2.5658 Z -0.2265
-2.5658 á -0.2265
-2.5658 é -0.2265
-2.5658 í -0.2265
-2.5658 ñ -0.2265
-2.5658 ó -0.2265
-2.5658 ú -0.2265
-2.5658 ü -0.2265

\2-grams:
-0.3010 & </s> -0.3010
-0.3010 . </s> -0.3010
-2.0645 <s> & 0.0000
-2.0645 <s> . 0.0000
-2.0645 <s> A 0.0000
-2.0645 <s> ABRE 0.0000
-2.0645 <s> ASTERISCO 0.0000
-2.0645 <s> B 0.0000
-2.0645 <s> C 0.0000
-2.0645 <s> CERO 0.0000
-2.0645 <s> CIERRA 0.0000
-2.0645 <s> CINCO 0.0000
-2.0645 <s> COMA 0.0000
-2.0645 <s> COMILLAS 0.0000
-2.0645 <s> CUATRO 0.0000
-2.0645 <s> D 0.0000
-2.0645 <s> DOS 0.0000
-2.0645 <s> E 0.0000
-2.0645 <s> F 0.0000
-2.0645 <s> G 0.0000
-2.0645 <s> GUION 0.0000
-2.0645 <s> H 0.0000
-2.0645 <s> I 0.0000
-2.0645 <s> J 0.0000
-2.0645 <s> K 0.0000
-2.0645 <s> L 0.0000
-2.0645 <s> M 0.0000
-2.0645 <s> MAYUS 0.0000
-2.0645 <s> N 0.0000
-2.0645 <s> NUEVE 0.0000
-2.0645 <s> NUMERO 0.0000
-2.0645 <s> O 0.0000
-2.0645 <s> OCHO 0.0000
-2.0645 <s> P 0.0000
-1.7634 <s> PREFIJO 0.0000
-2.0645 <s> PUNTO 0.0000
-2.0645 <s> Q 0.0000
-2.0645 <s> R 0.0000
-2.0645 <s> S 0.0000
-2.0645 <s> SEIS 0.0000
-2.0645 <s> SIETE 0.0000
-1.7634 <s> SIGNO 0.0000
-2.0645 <s> T 0.0000
-2.0645 <s> TRES 0.0000
-2.0645 <s> U 0.0000
-2.0645 <s> UNO 0.0000
-2.0645 <s> V 0.0000
-2.0645 <s> W 0.0000
-2.0645 <s> X 0.0000
-2.0645 <s> Y -0.1761
-2.0645 <s> Z 0.0000
-2.0645 <s> á 0.0000
-2.0645 <s> é 0.0000
-2.0645 <s> í 0.0000
-2.0645 <s> ñ 0.0000
-2.0645 <s> ó 0.0000
-2.0645 <s> ú 0.0000
-2.0645 <s> ü 0.0000
-0.3010 A </s> -0.3010
-0.3010 ABRE PARENTESIS 0.0000
-0.3010 ASTERISCO </s> -0.3010
-0.3010 B </s> -0.3010
-0.3010 C </s> -0.3010
-0.3010 CERO </s> -0.3010
-0.3010 CIERRA PARENTESIS 0.0000
-0.3010 CINCO </s> -0.3010
-0.3010 COMA </s> -0.3010
-0.3010 COMILLAS </s> -0.3010
-0.3010 CUATRO </s> -0.3010
-0.3010 D </s> -0.3010
-0.6021 DE EXCLAMACIóN 0.0000
-0.6021 DE INTERROGACIóN 0.0000
-0.3010 DOS </s> -0.3010
-0.3010 E </s> -0.3010
-0.3010 EXCLAMACIóN </s> -0.3010
-0.3010 F </s> -0.3010
-0.3010 G </s> -0.3010
-0.3010 GUION </s> -0.3010
-0.3010 H </s> -0.3010
-0.3010 I </s> -0.3010
-0.3010 INTERROGACIóN </s> -0.3010
-0.3010 J </s> -0.3010
-0.3010 K </s> -0.3010
-0.3010 L </s> -0.3010
-0.3010 M </s> -0.3010
-0.3010 MAYUS </s> -0.3010
-0.3010 N </s> -0.3010
-0.3010 NUEVE </s> -0.3010
-0.3010 NUMERO </s> -0.3010
-0.3010 NúMERICO </s> -0.3010
-0.3010 NúMERO </s> -0.3010
-0.3010 O </s> -0.3010
-0.3010 OCHO </s> -0.3010
-0.3010 P </s> -0.3010
-0.3010 PARENTESIS </s> -0.3010
-0.6021 PREFIJO NúMERICO 0.0000
-0.6021 PREFIJO NúMERO 0.0000
-0.3010 PUNTO Y -0.1761
-0.3010 Q </s> -0.3010
-0.3010 R </s> -0.3010
-0.3010 S </s> -0.3010
-0.3010 SEIS </s> -0.3010
-0.3010 SIETE </s> -0.3010
-0.3010 SIGNO DE 0.0000
-0.3010 T </s> -0.3010
-0.3010 TRES </s> -0.3010
-0.3010 U </s> -0.3010
-0.3010 UNO </s> -0.3010
-0.3010 V </s> -0.3010
-0.3010 W </s> -0.3010
-0.3010 X </s> -0.3010
-0.6021 Y </s> -0.3010
-0.6021 Y COMA 0.0000
-0.3010 Z </s> -0.3010
-0.3010 á </s> -0.3010
-0.3010 é </s> -0.3010
-0.3010 í </s> -0.3010
-0.3010 ñ </s> -0.3010
-0.3010 ó </s> -0.3010
-0.3010 ú </s> -0.3010
-0.3010 ü </s> -0.3010

\3-grams:
-0.3010 <s> & </s>
-0.3010 <s> . </s>
-0.3010 <s> A </s>
-0.3010 <s> ABRE PARENTESIS
-0.3010 <s> ASTERISCO </s>
-0.3010 <s> B </s>
-0.3010 <s> C </s>
-0.3010 <s> CERO </s>
-0.3010 <s> CIERRA PARENTESIS
-0.3010 <s> CINCO </s>
-0.3010 <s> COMA </s>
-0.3010 <s> COMILLAS </s>
-0.3010 <s> CUATRO </s>
-0.3010 <s> D </s>
-0.3010 <s> DOS </s>
-0.3010 <s> E </s>
-0.3010 <s> F </s>
-0.3010 <s> G </s>
-0.3010 <s> GUION </s>
-0.3010 <s> H </s>
-0.3010 <s> I </s>
-0.3010 <s> J </s>
-0.3010 <s> K </s>
-0.3010 <s> L </s>
-0.3010 <s> M </s>
-0.3010 <s> MAYUS </s>
-0.3010 <s> N </s>
-0.3010 <s> NUEVE </s>
-0.3010 <s> NUMERO </s>
-0.3010 <s> O </s>
-0.3010 <s> OCHO </s>
-0.3010 <s> P </s>
-0.6021 <s> PREFIJO NúMERICO
-0.6021 <s> PREFIJO NúMERO
-0.3010 <s> PUNTO Y
-0.3010 <s> Q </s>
-0.3010 <s> R </s>
-0.3010 <s> S </s>
-0.3010 <s> SEIS </s>
-0.3010 <s> SIETE </s>
-0.3010 <s> SIGNO DE
-0.3010 <s> T </s>
-0.3010 <s> TRES </s>
-0.3010 <s> U </s>
-0.3010 <s> UNO </s>
-0.3010 <s> V </s>
-0.3010 <s> W </s>
-0.3010 <s> X </s>
-0.3010 <s> Y </s>
-0.3010 <s> Z </s>
-0.3010 <s> á </s>
-0.3010 <s> é </s>
-0.3010 <s> í </s>
-0.3010 <s> ñ </s>
-0.3010 <s> ó </s>
-0.3010 <s> ú </s>
-0.3010 <s> ü </s>
-0.3010 ABRE PARENTESIS </s>
-0.3010 CIERRA PARENTESIS </s>
-0.3010 DE EXCLAMACIóN </s>
-0.3010 DE INTERROGACIóN </s>
-0.3010 PREFIJO NúMERICO </s>
-0.3010 PREFIJO NúMERO </s>
-0.3010 PUNTO Y COMA
-0.6021 SIGNO DE EXCLAMACIóN
-0.6021 SIGNO DE INTERROGACIóN
-0.3010 Y COMA </s>

\end\
